net
{
	propagationenginegenerator1791944048146838126L = "edu.ucla.belief.approx.BeliefPropagationSettings@7051bf76";
	recoveryenginegenerator6944530267470113528l = "edu.ucla.util.SettingsImpl@54181f9";
	node_size = (130.0 55.0);
	huginenginegenerator3061656038650325130L = "edu.ucla.belief.inference.JoinTreeSettings@5cfceb53";
}

node Income
{
	states = ("High" "Medium" "Low" );
	position = (-16 -208);
	DSLxEXTRA_DEFINITIONxMANDATORY = "false";
	diagnosistype = "AUXILIARY";
	label = "Income";
	DSLxPOSITIONxWIDTH = "83";
	DSLxEXTRA_DEFINITIONxDIAGNOSIS_TYPE = "AUXILIARY";
	excludepolicy = "include whole CPT";
	DSLxTYPE = "CPT";
	DSLxPOSITIONxHEIGHT = "30";
	DSLxEXTRA_DEFINITIONxRANKED = "false";
	ismapvariable = "false";
	ID = "Profession";
}
node DebtIncomeRatio
{
	states = ("Low" "High" );
	position = (9 -90);
	DSLxEXTRA_DEFINITIONxMANDATORY = "false";
	diagnosistype = "AUXILIARY";
	label = "Ratio of Debts To Income";
	DSLxPOSITIONxWIDTH = "81";
	DSLxEXTRA_DEFINITIONxDIAGNOSIS_TYPE = "AUXILIARY";
	excludepolicy = "include whole CPT";
	DSLxTYPE = "CPT";
	DSLxPOSITIONxHEIGHT = "30";
	DSLxEXTRA_DEFINITIONxRANKED = "false";
	ismapvariable = "false";
	ID = "RatioDebInc";
}
node Age
{
	states = ("Between16and21" "Between22and64" "Over65" );
	position = (487 -185);
	DSLxEXTRA_DEFINITIONxMANDATORY = "false";
	diagnosistype = "AUXILIARY";
	label = "Age";
	DSLxPOSITIONxWIDTH = "70";
	DSLxEXTRA_DEFINITIONxDIAGNOSIS_TYPE = "AUXILIARY";
	excludepolicy = "include whole CPT";
	DSLxTYPE = "CPT";
	DSLxPOSITIONxHEIGHT = "30";
	DSLxEXTRA_DEFINITIONxRANKED = "false";
	ismapvariable = "false";
	ID = "Age";
}
node Assets
{
	states = ("High" "Medium" "Low" );
	position = (241 -269);
	DSLxEXTRA_DEFINITIONxMANDATORY = "false";
	diagnosistype = "AUXILIARY";
	label = "Assets";
	DSLxPOSITIONxWIDTH = "70";
	DSLxEXTRA_DEFINITIONxDIAGNOSIS_TYPE = "AUXILIARY";
	excludepolicy = "include whole CPT";
	DSLxTYPE = "CPT";
	DSLxPOSITIONxHEIGHT = "30";
	DSLxEXTRA_DEFINITIONxRANKED = "false";
	ismapvariable = "false";
	ID = "Worth";
}
node FutureIncome
{
	states = ("Promising" "Not_promising" );
	position = (-20 -386);
	DSLxEXTRA_DEFINITIONxMANDATORY = "false";
	diagnosistype = "AUXILIARY";
	label = "Future Income";
	DSLxPOSITIONxWIDTH = "90";
	DSLxEXTRA_DEFINITIONxDIAGNOSIS_TYPE = "AUXILIARY";
	excludepolicy = "include whole CPT";
	DSLxTYPE = "CPT";
	DSLxPOSITIONxHEIGHT = "30";
	DSLxEXTRA_DEFINITIONxRANKED = "false";
	ismapvariable = "false";
	ID = "FutureIncome";
}
node Reliability
{
	states = ("Reliable" "Unreliable" );
	position = (513 -312);
	DSLxEXTRA_DEFINITIONxMANDATORY = "false";
	diagnosistype = "AUXILIARY";
	label = "Reliability";
	DSLxPOSITIONxWIDTH = "70";
	DSLxEXTRA_DEFINITIONxDIAGNOSIS_TYPE = "AUXILIARY";
	excludepolicy = "include whole CPT";
	DSLxTYPE = "CPT";
	DSLxPOSITIONxHEIGHT = "30";
	DSLxEXTRA_DEFINITIONxRANKED = "false";
	ismapvariable = "false";
	ID = "Reliability";
}
node CreditWorthiness
{
	states = ("Positive" "Negative" );
	position = (158 -390);
	DSLxEXTRA_DEFINITIONxMANDATORY = "false";
	diagnosistype = "AUXILIARY";
	label = "Credit Worthiness";
	DSLxPOSITIONxWIDTH = "100";
	DSLxEXTRA_DEFINITIONxDIAGNOSIS_TYPE = "AUXILIARY";
	excludepolicy = "include whole CPT";
	DSLxTYPE = "CPT";
	DSLxPOSITIONxHEIGHT = "30";
	DSLxEXTRA_DEFINITIONxRANKED = "false";
	ismapvariable = "false";
	ID = "CreditWorthiness";
}
node PaymentHistory
{
	states = ("Excellent" "Acceptable" "Unacceptable" );
	position = (255 -182);
	DSLxEXTRA_DEFINITIONxMANDATORY = "false";
	diagnosistype = "AUXILIARY";
	label = "Payment History";
	DSLxPOSITIONxWIDTH = "93";
	DSLxEXTRA_DEFINITIONxDIAGNOSIS_TYPE = "AUXILIARY";
	excludepolicy = "include whole CPT";
	DSLxTYPE = "CPT";
	DSLxPOSITIONxHEIGHT = "30";
	DSLxEXTRA_DEFINITIONxRANKED = "false";
	ismapvariable = "false";
	ID = "PaymentHistory";
}
potential ( Income | )
{
	data = (	0.3333333333333333	0.3333333333333333	0.3333333333333333	);
}
potential ( DebtIncomeRatio | )
{
	data = (	0.5	0.5	);
}
potential ( Age | )
{
	data = (	0.3333333333333333	0.3333333333333333	0.3333333333333333	);
}
potential ( Assets | Income )
{
	data = ((	0.6	0.3	0.09999999999999998	)
		(	0.5	0.2	0.3	)
		(	0.4	0.1	0.5	));
}
potential ( FutureIncome | Income Assets )
{
	data = (((	0.6	0.4	)
		(	0.5	0.5	)
		(	0.4	0.6	))
		((	0.5	0.5	)
		(	0.4	0.6	)
		(	0.3	0.7	))
		((	0.4	0.6	)
		(	0.3	0.7	)
		(	0.2	0.8	)));
}
potential ( Reliability | PaymentHistory Age )
{
	data = (((	0.5	0.5	)
		(	0.7	0.3	)
		(	0.9	0.1	))
		((	0.2727272727272727	0.7272727272727273	)
		(	0.5	0.5	)
		(	0.7	0.3	))
		((	0.1	0.9	)
		(	0.2	0.8	)
		(	0.1	0.9	)));
}
potential ( CreditWorthiness | Reliability FutureIncome DebtIncomeRatio )
{
	data = ((((	0.9	0.1	)
		(	0.8	0.2	))
		((	0.7	0.3	)
		(	0.6	0.4	)))
		(((	0.5	0.5	)
		(	0.4	0.6	))
		((	0.3	0.7	)
		(	0.2	0.8	))));
}
potential ( PaymentHistory | Age DebtIncomeRatio )
{
	data = (((	0.4	0.4	0.2	)
		(	0.3	0.3	0.4	))
		((	0.5000000000000001	0.42000000000000004	0.08000000000000002	)
		(	0.4	0.35	0.25	))
		((	0.52	0.44	0.04	)
		(	0.45	0.4	0.15	)));
}
